<?xml version="1.0"?>
<opencv_storage>
<my_svm type_id="opencv-ml-svm">
  <svm_type>C_SVC</svm_type>
  <kernel><type>LINEAR</type></kernel>
  <C>1.</C>
  <term_criteria><epsilon>2.2204460492503131e-016</epsilon>
    <iterations>100</iterations></term_criteria>
  <var_all>432</var_all>
  <var_count>432</var_count>
  <class_count>2</class_count>
  <class_labels type_id="opencv-matrix">
    <rows>1</rows>
    <cols>2</cols>
    <dt>i</dt>
    <data>
      -1 1</data></class_labels>
  <sv_total>1</sv_total>
  <support_vectors>
    <_>
      1.54464900e-001 -1.16561487e-001 -5.93618378e-002 9.08320189e-001
      -1.85698628e-001 1.13308586e-001 3.38665724e-001 2.28795171e-001
      -9.30357724e-002 4.73949984e-002 -4.59622413e-001 -6.74538076e-001
      -4.20993149e-001 5.94306350e-001 -7.64345303e-002 -4.85357791e-001
      -5.21271825e-002 -1.14744566e-002 -9.36698020e-002 1.08536690e-001
      2.48432562e-001 1.73405930e-001 -6.82644621e-002 -3.81140023e-001
      -2.84324829e-002 1.36214897e-001 -2.33194187e-001 -8.74320120e-002
      -1.18869580e-001 2.78557271e-001 -2.60754675e-001 2.89896131e-001
      -4.11397010e-001 -1.07771240e-001 -3.37731205e-002
      -2.20666960e-001 3.06410313e-001 3.79275590e-001 2.36789316e-001
      -1.55547932e-001 5.05219400e-002 4.11403924e-001 9.00132135e-002
      -1.41366169e-001 -1.06544018e-001 1.69728905e-001 4.20828998e-001
      3.43954712e-001 -3.16753149e-001 2.39438713e-001 9.27732110e-001
      5.42207599e-001 -4.45706770e-002 1.29440859e-001 -2.11925283e-001
      3.87978107e-002 5.87010086e-001 2.37925261e-001 2.00110450e-001
      -5.01591742e-001 -4.62866947e-002 -2.81981170e-001
      -3.80794793e-001 -9.81650427e-002 5.69040254e-002 1.89647421e-001
      5.25955498e-001 1.69844165e-001 -1.17703177e-001 -1.36862055e-003
      -2.71070123e-001 -1.20990835e-001 4.26660538e-001 -1.79437771e-002
      -2.89450467e-001 4.72632617e-001 3.23682785e-001 2.58450985e-001
      -1.37036502e-001 2.77676880e-001 1.66626304e-001 1.95199385e-001
      -7.71950930e-002 -1.77838385e-001 3.69610339e-002 6.20830417e-001
      2.33371854e-001 -2.94236481e-001 6.83456585e-002 2.84320682e-001
      5.53772822e-002 -1.61506951e-001 5.81927419e-001 6.63857639e-001
      5.91391206e-001 5.00784330e-002 -1.24370597e-001 3.73487830e-001
      9.69638303e-002 -1.16193108e-001 -5.25527477e-001 -4.60249513e-001
      4.04185742e-001 8.57515812e-001 1.93816066e-001 -5.66103280e-001
      -1.94535330e-002 -1.56062469e-001 -4.34416113e-003 2.67698914e-002
      2.39144871e-003 6.86496794e-002 7.30256736e-001 4.87836659e-001
      -4.20496613e-001 -4.58485812e-001 -4.62794006e-002 2.22188979e-002
      2.15780959e-001 2.22613528e-001 1.60750344e-001 2.22973358e-002
      2.66187768e-002 1.06477216e-001 -9.24425125e-002 6.13603145e-002
      2.02203289e-001 -3.19427490e-001 1.24673799e-001 -2.78740197e-001
      5.24767876e-001 6.65888846e-001 3.09061289e-001 -3.72763067e-001
      1.28900725e-003 3.95170182e-001 1.26921535e-001 7.72902250e-001
      6.47841215e-001 1.98763311e-001 6.85078204e-002 4.17598039e-001
      4.92920637e-001 5.75198472e-001 -2.58028865e-001 -7.22630695e-002
      -6.54943764e-001 9.29212198e-002 5.17907321e-001 3.16814005e-001
      7.13151813e-001 4.49341387e-001 -5.74332029e-002 1.18315108e-001
      -1.49030089e-001 -4.46936160e-001 -1.11249447e-001 4.56679523e-001
      5.41549027e-001 3.03070277e-001 7.20048770e-002 5.13126291e-002
      -9.94663239e-002 -2.14962378e-001 -4.28774416e-001
      -7.47727811e-001 3.35926712e-001 -3.51248980e-001 8.49105597e-001
      1.62243903e-001 -2.05371544e-001 1.83603495e-001 2.19706833e-001
      -1.14799872e-001 4.13807839e-001 4.50930923e-001 7.95473531e-002
      1.86523542e-001 3.91972423e-001 1.51024595e-001 -3.13483030e-001
      -1.04464069e-001 -1.43521965e-001 9.77784246e-002 4.97884154e-002
      -7.47294426e-002 -2.62673855e-001 -1.24580018e-001 1.58115581e-001
      -1.23081222e-001 -3.19383740e-001 -4.58975397e-002 3.49631220e-001
      2.67036974e-001 6.77714169e-001 1.85819134e-001 -4.05261964e-002
      -3.86151485e-002 1.22419566e-001 2.47584894e-001 -7.09331855e-002
      5.29194176e-001 4.15540449e-002 3.34884942e-001 -1.09066308e-001
      1.94985375e-001 2.86607563e-001 -3.59879225e-001 -2.91419804e-001
      -2.71783203e-001 4.34641004e-001 -3.84131968e-001 7.14830458e-001
      4.77109879e-001 4.17558968e-001 -3.07935830e-002 1.18233832e-002
      1.30792320e-001 4.27477896e-001 2.03878865e-001 2.44920850e-001
      -5.96841991e-001 -7.38159046e-002 -5.03749475e-002
      -2.58326456e-002 -8.13602924e-001 -3.29755545e-001 3.21677297e-001
      4.91609573e-001 6.91934168e-001 1.85747430e-001 -2.47106701e-001
      -4.01435047e-002 -6.56350076e-001 2.14665934e-001 3.14295501e-001
      -2.44245574e-001 -5.11768997e-001 8.26374218e-002 -8.56640115e-002
      1.53568447e-001 4.31497060e-002 1.68533668e-001 -7.26954192e-002
      9.40180197e-002 7.37278700e-001 7.25794435e-001 5.84529638e-001
      -2.45606512e-001 -3.08842678e-002 -1.88673645e-001
      -3.15564543e-001 -1.49871200e-001 -2.42755577e-001
      -7.00048864e-001 6.72861636e-001 1.89652890e-001 1.66779160e-001
      -1.86106607e-001 -5.85884392e-001 9.32637751e-002 -3.36745739e-001
      -1.57716170e-001 1.99430287e-001 3.92571092e-001 5.40143967e-001
      -4.42545354e-001 5.20548880e-001 2.24758089e-001 1.01711765e-001
      -2.54821539e-001 1.25986800e-001 -1.76896285e-002 4.35903132e-001
      -6.06675772e-003 1.10320663e+000 -1.63820192e-001 -2.62106717e-001
      2.76367348e-002 -1.74236596e-001 2.08420306e-001 1.93047330e-001
      -2.07016114e-002 6.29469931e-001 2.79214650e-001 1.20336026e-001
      -1.07552996e-002 -1.21064045e-001 -1.76424265e-001
      -6.54615015e-002 1.74332764e-002 6.58206195e-002 -3.69189419e-002
      -4.22040761e-001 -3.56698409e-002 -4.52727377e-002
      -1.81222662e-001 -1.81915596e-001 -5.40404469e-002 3.41340117e-002
      6.79085851e-001 3.22120994e-001 5.61775208e-001 1.37682483e-001
      4.85817976e-002 -4.80376408e-002 -2.04826985e-002 -1.37553021e-001
      -3.49320352e-001 -1.32995307e-001 -3.99491370e-001 1.66587904e-001
      -1.31557107e-001 3.14672887e-002 -1.24541685e-001 5.92924833e-001
      2.87929237e-001 -5.98284937e-002 -3.85622114e-001 1.90078169e-001
      4.23416823e-001 2.97944874e-001 2.29425952e-001 2.77245015e-001
      4.04110074e-001 3.03897113e-001 2.30120063e-001 -2.58588701e-001
      1.32424399e-001 4.37452435e-001 -3.95829380e-001 -5.52051365e-001
      3.67046803e-001 5.75906672e-002 -2.12944541e-002 1.17532223e-001
      6.49250627e-001 8.74614492e-002 -1.52502790e-001 -4.44696516e-001
      -4.09250259e-001 2.30813753e-002 1.62517309e-001 2.53015548e-001
      -6.68118447e-002 -4.62239087e-001 2.02480167e-001 -1.12310000e-001
      4.41445500e-001 -1.90373406e-001 1.83750898e-001 3.01498431e-003
      1.41676664e-001 3.95879745e-001 3.09666187e-001 -1.97654366e-001
      2.33393237e-001 1.66269138e-001 -1.00942776e-001 1.02163173e-001
      -5.99157102e-002 -6.12272732e-002 1.22888170e-001 -3.19413275e-001
      4.80358720e-001 -1.88243464e-001 -3.92920226e-001 7.79319182e-002
      6.42395765e-002 2.77758598e-001 1.20534986e-001 -2.16149658e-001
      -6.64783299e-001 1.07695356e-001 1.33409604e-001 -4.76793885e-001
      1.55028015e-001 3.15339535e-001 -1.29858688e-001 -1.81836978e-001
      4.04171467e-001 -1.16665199e-001 3.16023678e-001 1.01516269e-001
      -2.37069696e-001 1.28652245e-001 1.31564274e-001 3.21784109e-001
      4.53398786e-002 1.94267314e-002 4.61210757e-001 3.38944644e-001
      -9.03621241e-002 9.37673599e-002 4.98268187e-001 3.52874398e-001
      2.84674227e-001 -2.69083947e-001 -4.79138866e-002 7.07031190e-002
      2.32165128e-001 3.79220545e-001 -7.80825764e-002 -1.60997704e-001
      3.29179466e-001 -1.23869248e-001 -3.79054159e-001 -1.02920577e-001
      2.23993748e-001 -3.62954229e-001 4.06132966e-001 2.26904288e-001
      4.31397650e-003 5.24606854e-002 2.36986145e-001 -1.20431393e-001
      5.92137575e-001 6.59699216e-002 -1.21061854e-001 4.02000576e-001
      -2.17145652e-001 7.94131891e-004 5.80532730e-001 1.83905542e-001
      -1.96362287e-001 -1.58476919e-001 2.04332963e-001 -3.39084059e-001
      -9.27158445e-002 1.11730039e-001 3.64425123e-001 5.45899034e-001</_></support_vectors>
  <decision_functions>
    <_>
      <sv_count>1</sv_count>
      <rho>6.9415519198347955e+000</rho>
      <alpha>
        1.</alpha>
      <index>
        0</index></_></decision_functions></my_svm>
</opencv_storage>
