<?xml version="1.0"?>
<opencv_storage>
<my_svm type_id="opencv-ml-svm">
  <svm_type>C_SVC</svm_type>
  <kernel><type>LINEAR</type></kernel>
  <C>1.</C>
  <term_criteria><epsilon>2.2204460492503131e-016</epsilon>
    <iterations>100</iterations></term_criteria>
  <var_all>432</var_all>
  <var_count>432</var_count>
  <class_count>2</class_count>
  <class_labels type_id="opencv-matrix">
    <rows>1</rows>
    <cols>2</cols>
    <dt>i</dt>
    <data>
      -1 1</data></class_labels>
  <sv_total>1</sv_total>
  <support_vectors>
    <_>
      -1.54718449e-002 -1.24382809e-001 -8.66164789e-002 1.81820780e-001
      5.64797297e-002 2.16234073e-001 -5.58013469e-002 -1.23362869e-001
      -1.18566833e-001 -1.03147678e-001 -1.28045857e-001
      -6.89212605e-002 -2.93044448e-001 8.88471901e-002 -1.63390741e-001
      -1.00649320e-001 -1.24347121e-001 2.33072462e-003 4.53031249e-002
      -8.31280127e-002 1.30728438e-001 2.21627295e-001 1.31744474e-001
      3.33930373e-001 -1.23541519e-001 -6.55296221e-002 -4.52949740e-002
      -7.40210712e-002 -1.06307395e-001 4.51876193e-001 -3.53297651e-001
      3.15606631e-002 -2.48503283e-001 4.26129140e-002 -9.92879421e-002
      -1.71257630e-002 4.98056598e-002 2.48621389e-001 -1.10581122e-001
      1.80190086e-001 -1.97525583e-002 2.52185464e-001 1.71593115e-001
      -5.55788279e-002 8.61421004e-002 7.45201185e-002 6.38145506e-002
      -1.53031692e-001 -7.27071315e-002 1.12292327e-001 2.37893149e-001
      1.13579154e-001 -6.15060255e-002 1.71321601e-001 -6.87856525e-002
      1.43510759e-001 3.68537843e-001 2.86174744e-001 -3.20854485e-002
      -2.74879962e-001 5.18865995e-002 -1.08088888e-001 -1.45808896e-002
      -6.47525713e-002 4.99162190e-002 2.61081159e-001 2.97908843e-001
      9.86372158e-002 -4.14221048e-001 -9.41884816e-002 -2.50679314e-001
      -8.32840502e-002 6.51949048e-002 -9.73476842e-002 2.02685207e-001
      -9.28405449e-002 3.56555551e-001 2.13369336e-002 1.94901019e-001
      1.97007760e-001 1.00620225e-001 -1.58347100e-001 -2.33082116e-001
      1.11095086e-001 2.51333028e-001 2.40813464e-001 1.36417285e-001
      2.60776848e-001 1.02125637e-001 1.90216601e-002 2.34746486e-001
      8.88181925e-002 5.21707058e-001 -1.23329356e-001 2.94622749e-001
      1.16490021e-001 1.22934692e-001 6.44798279e-002 1.18362769e-001
      1.19827993e-001 1.85159728e-001 1.85908586e-001 -1.97329387e-001
      1.19544201e-001 -5.85654601e-002 3.24469842e-002 -8.76956582e-002
      3.38838398e-002 -6.79582655e-002 1.90133184e-001 4.67292778e-003
      2.79307932e-001 1.22893952e-001 -1.50280669e-001 -1.59999371e-001
      -1.19990155e-001 -6.27633631e-002 1.21079884e-001 2.63748951e-002
      -7.92437270e-002 -1.35555059e-001 -8.05388857e-003
      -3.91888767e-001 1.32706806e-001 3.37960981e-002 3.46289314e-002
      -1.42303050e-001 -3.51723045e-001 2.50908714e-002 4.90792751e-001
      2.40287080e-001 -3.44456285e-002 -1.00589290e-001 4.68355417e-002
      -2.16778480e-002 5.46096452e-003 -5.75832538e-002 -7.90900178e-003
      -7.29003921e-002 7.46416748e-002 -2.14876011e-001 -3.79452147e-002
      2.76124924e-001 2.29805797e-001 -7.19408020e-002 -1.84593663e-001
      -5.38311377e-002 -8.15037731e-003 9.16110575e-002 -7.88982958e-002
      -2.55236086e-002 1.21973515e-001 4.42769304e-002 3.22267786e-002
      -7.97221288e-002 2.30703473e-001 1.36223212e-001 -6.76660761e-002
      -1.75886914e-001 -1.82813138e-001 8.31316859e-002 1.34332389e-001
      -2.69135237e-001 -3.64487499e-001 1.70721021e-002 8.84019658e-002
      -5.14505617e-002 -8.14292058e-002 1.47877008e-001 -1.04424030e-001
      -1.81604281e-001 -2.17187434e-001 2.71194451e-003 4.42538440e-001
      4.01422292e-001 1.00108176e-001 3.16136628e-001 -1.59570910e-002
      6.42672554e-002 -1.24662384e-001 -4.27686237e-002 1.79077387e-001
      1.81770530e-002 4.20578331e-001 1.05297968e-001 -3.09876114e-001
      1.70973182e-001 1.09625421e-001 -8.79898593e-002 8.54260921e-002
      -1.02083601e-001 1.08877523e-002 1.01780571e-001 1.25876635e-001
      -2.70934608e-002 5.88243492e-002 1.73243567e-001 1.13613702e-001
      2.10474022e-002 2.66680717e-001 -1.69229075e-001 -5.48746847e-002
      9.78043973e-002 -3.15353543e-001 2.63688385e-001 1.94437698e-001
      1.96209606e-002 5.88408224e-002 -1.30444854e-001 -3.28708410e-001
      -2.21766517e-001 -1.46633580e-001 1.13584958e-002 1.39174923e-001
      1.48444146e-001 8.52873325e-002 1.07137658e-001 6.91525713e-002
      2.30632544e-001 1.30762458e-001 7.75847957e-002 -1.10682640e-002
      4.96008210e-002 -1.38231501e-001 3.28170210e-002 -3.57742190e-001
      -3.54965836e-001 9.79080871e-002 1.41255185e-001 3.01153868e-001
      -1.25445575e-001 1.77503284e-002 -2.63922691e-001 -2.08520606e-001
      -9.68929473e-003 2.01094244e-002 -2.62815177e-001 1.95929319e-001
      -8.82059932e-002 1.32607669e-001 -1.13257274e-001 -1.12673171e-001
      5.93685284e-002 -6.61479309e-002 -1.51327133e-001 2.27761418e-001
      3.35327536e-001 1.64225429e-001 9.37528014e-002 4.74662222e-002
      -2.08483756e-001 6.35149097e-003 3.00673217e-001 4.28767577e-002
      -2.41716459e-001 2.47866780e-001 1.34267226e-001 -8.13361257e-002
      6.08624071e-002 -7.80660287e-002 -2.96596922e-002 9.33297165e-003
      -8.91118962e-003 -1.10384755e-001 3.19254965e-001 2.23822314e-002
      -2.66182303e-001 1.61476672e-001 1.32077396e-001 1.17311012e-002
      1.11551076e-001 1.35549679e-001 1.73844755e-001 2.48571277e-001
      -3.51826251e-002 8.86896551e-002 -3.17424871e-002 2.38424484e-002
      -9.50493217e-002 -1.90711096e-002 5.03657423e-002 3.71343434e-001
      3.57672781e-001 6.90111592e-002 -1.56803757e-001 5.54551780e-002
      -3.42518464e-002 -1.27171785e-001 -1.00304142e-001
      -1.20568648e-001 6.46037087e-002 9.60110947e-002 2.24781737e-001
      -3.04052413e-001 -1.53808147e-001 -6.63890541e-002
      -1.54897884e-001 -1.89715490e-001 -1.50795076e-002 1.47703677e-001
      1.50693417e-001 2.65938621e-002 1.12512819e-001 4.87131849e-002
      -5.06837852e-002 -1.82587609e-001 2.85594501e-002 -4.32032533e-003
      3.73583585e-002 3.14030945e-001 -9.38554853e-002 -7.99085479e-003
      -1.03132710e-001 7.68706128e-002 -9.65840463e-003 1.38261855e-001
      1.48678109e-001 4.98035878e-001 -1.50646493e-002 -7.79974237e-002
      -3.20853963e-002 -1.28782272e-001 1.38842147e-002 -8.57147947e-002
      -6.12339489e-002 -6.24533743e-003 -1.30286366e-001
      -3.86263818e-001 -5.11562340e-002 4.86127377e-001 1.20889075e-001
      -5.81011511e-002 6.37198314e-002 -1.87123686e-001 -2.29844540e-001
      -1.88440233e-001 3.97876203e-001 -2.56947484e-002 3.81210566e-001
      -1.21004291e-001 -6.63689300e-002 -1.42492384e-001
      -1.58693828e-002 3.73724587e-002 2.18311578e-001 2.00761333e-002
      1.41643491e-002 -1.96559727e-001 3.22580278e-001 -1.09896481e-001
      -7.59578589e-003 -1.68625012e-001 -6.18961826e-002 2.30272949e-001
      4.66073006e-001 -1.01952761e-001 2.94302851e-001 -1.44556746e-001
      -8.22926983e-002 -8.15108567e-002 -1.14865275e-002 4.73886691e-002
      -3.38121317e-002 4.17894721e-002 1.59969702e-001 1.03007359e-002
      -2.52709121e-001 -5.25782183e-002 2.35545654e-002 -6.00773394e-002
      7.40375835e-003 -1.22306101e-001 -1.06803179e-002 -8.95247236e-002
      -9.08857305e-003 -3.42849106e-001 4.15027514e-002 1.19208619e-001
      -4.58286367e-002 1.92988627e-002 2.56657064e-001 1.22538731e-001
      -5.14410883e-002 6.35160446e-001 -1.57261953e-001 -1.24884793e-003
      2.15125326e-002 3.71733718e-002 -1.54511370e-002 -1.35649890e-001
      2.95425028e-001 5.55170514e-002 1.85974598e-001 7.59420693e-002
      1.28249496e-001 -1.04098720e-002 1.40564054e-001 -9.12470594e-002
      -4.71293293e-002 3.47435512e-002 -9.45182964e-002 2.64534533e-001
      -1.94719061e-001 5.67650758e-002 4.37212596e-003 1.47644356e-001
      -6.33119792e-002 -5.14808751e-004 1.09093919e-001 -1.51933014e-001
      -1.52660728e-001 -6.32089525e-002 2.23150961e-002 7.75392950e-002
      3.05699646e-001 7.68596381e-002 2.51397073e-001 2.23279133e-001
      -4.86586243e-002 6.40893355e-002 4.24743332e-002 3.75475846e-002
      1.65231273e-001 2.27241442e-001 -4.96272109e-002 -3.06246094e-002
      1.79401219e-001 -1.54251754e-001 9.45685133e-002 8.78735036e-002
      1.84994087e-001 2.17535987e-001</_></support_vectors>
  <decision_functions>
    <_>
      <sv_count>1</sv_count>
      <rho>3.4945036339059015e+000</rho>
      <alpha>
        1.</alpha>
      <index>
        0</index></_></decision_functions></my_svm>
</opencv_storage>
