<?xml version="1.0"?>
<opencv_storage>
<my_svm type_id="opencv-ml-svm">
  <svm_type>C_SVC</svm_type>
  <kernel><type>LINEAR</type></kernel>
  <C>1.</C>
  <term_criteria><epsilon>2.2204460492503131e-016</epsilon>
    <iterations>100</iterations></term_criteria>
  <var_all>432</var_all>
  <var_count>432</var_count>
  <class_count>2</class_count>
  <class_labels type_id="opencv-matrix">
    <rows>1</rows>
    <cols>2</cols>
    <dt>i</dt>
    <data>
      -1 1</data></class_labels>
  <sv_total>1</sv_total>
  <support_vectors>
    <_>
      2.86715865e-001 2.04241052e-001 1.20159402e-001 1.39446467e-001
      -1.71392515e-001 -5.57935750e-003 2.02860638e-001 6.48199990e-002
      -4.06465344e-002 1.54111117e-001 8.01259801e-002 -4.36689332e-002
      -8.20755586e-003 2.47605667e-001 -5.89223765e-002 -2.09919531e-002
      1.45595670e-001 7.21130371e-002 1.09386452e-001 2.57999927e-001
      4.80757773e-001 -6.91560507e-002 -2.67295569e-001 -3.94037038e-001
      -3.32120717e-001 3.03962622e-002 -5.84913641e-002 1.43447772e-001
      1.12216502e-001 1.89122438e-001 -4.87830400e-001 1.10206053e-001
      1.70689705e-003 3.50777030e-001 1.92112371e-001 9.81000140e-002
      7.54340440e-002 -4.30690423e-002 -2.10927933e-001 -2.84009743e-002
      7.36009628e-002 3.05311471e-001 3.99942607e-001 1.24380618e-001
      6.17775433e-002 -1.16888499e-002 -1.12815820e-001 -2.52290040e-001
      -1.34523800e-002 -6.51411787e-002 2.91463494e-001 1.92246333e-001
      -7.24984407e-002 5.95260113e-002 1.50753567e-002 -9.32739228e-002
      5.61013520e-001 1.45478830e-001 9.24021974e-002 7.60053890e-003
      3.25806260e-001 -1.61252081e-001 1.16687817e-002 -3.11021563e-002
      -6.29106760e-002 3.43697704e-002 3.01064432e-001 -7.02054575e-002
      -4.72747743e-001 1.06832907e-001 -3.55985701e-001 -1.63160145e-001
      2.59110063e-001 1.85190082e-001 3.68752629e-001 2.80482382e-001
      1.32981285e-001 -1.10822953e-001 2.98416346e-001 1.20746829e-001
      1.06272876e-001 9.57715288e-002 2.50233322e-001 1.86662257e-001
      2.65255749e-001 1.57791570e-001 2.54709143e-002 2.89233863e-001
      4.51953411e-002 2.37563521e-001 8.18885863e-002 -3.87007147e-001
      7.48714685e-001 -3.01000755e-002 2.28508696e-001 1.06222235e-001
      9.29440558e-002 1.14676714e-001 1.40174553e-001 -8.89075994e-002
      -6.87329248e-002 3.03912163e-001 -7.82108307e-002 1.84383616e-001
      1.34314224e-001 1.00939021e-001 -1.70304194e-001 1.30324721e-001
      -1.40312433e-001 -1.33085907e-001 -2.97238916e-001 4.28383619e-001
      3.43931645e-001 3.77477676e-001 -4.04820949e-001 -3.48943710e-001
      -1.14743404e-001 -4.21683490e-002 -1.38365194e-001
      -5.62073052e-001 -1.97153375e-001 -1.80779099e-002
      -3.16348732e-001 3.23329307e-002 -2.18508597e-002 4.63739336e-002
      -1.73906550e-001 -3.25587511e-001 -2.64391810e-001 2.49943323e-002
      3.78724724e-001 4.65162158e-001 1.59041032e-001 -4.12586890e-002
      2.00265739e-003 -1.36356637e-001 -9.52639058e-002 -1.76342562e-001
      -1.70826092e-001 9.40780565e-002 6.47289958e-003 -4.62199282e-003
      2.01110676e-001 1.94446728e-001 -1.13112941e-001 7.68127153e-003
      -3.42575848e-001 -7.37368688e-002 1.52711585e-001 2.44265974e-001
      4.46809918e-001 2.50853181e-001 2.62457021e-002 9.01503935e-002
      7.27027580e-002 3.94802064e-001 1.16393231e-001 2.01986060e-001
      -1.67771727e-001 1.99904874e-001 1.57100439e-001 7.99836591e-002
      -1.72721624e-001 -8.23296700e-003 1.49077430e-001 2.72225916e-001
      1.76681533e-001 -1.06649183e-001 5.92576191e-002 -2.02986777e-001
      -1.92410603e-001 1.76100433e-001 3.34247530e-001 5.62614262e-001
      5.26837587e-001 2.77920067e-001 -4.76872623e-002 5.06371371e-002
      8.73514265e-002 6.19019680e-002 -1.32091507e-001 3.70145410e-001
      2.60849595e-001 2.66926587e-002 -1.60010263e-001 8.88670683e-002
      4.22495037e-001 -1.22991297e-002 1.28190845e-001 5.56651875e-002
      5.48025183e-002 3.50987822e-001 -2.11854503e-001 1.47117794e-001
      3.21692377e-001 6.40931308e-001 2.20814064e-001 6.38472363e-002
      1.83482960e-001 5.58472753e-001 2.62956977e-001 1.02276824e-001
      -1.10759906e-001 -2.75802791e-001 -9.81561914e-002 1.21186733e-001
      2.57269084e-001 1.95632607e-001 6.07978106e-002 4.73490130e-004
      1.68480605e-001 -4.48759019e-001 1.32864773e-001 2.45924294e-001
      6.74991608e-002 1.32604659e-001 -2.43727043e-002 3.21585760e-002
      2.63528168e-001 2.52513319e-001 1.90746590e-001 1.43294886e-001
      2.72035785e-002 -1.52411833e-001 -5.38433995e-003 -3.10704142e-001
      -1.08037531e-001 -3.82383130e-002 2.66308784e-001 7.75405616e-002
      -4.70743895e-001 -1.00125909e-001 1.45463301e-002 -8.86966288e-002
      -1.90915179e-003 3.42126563e-002 -1.30861461e-001 2.06446717e-003
      -1.08058050e-001 4.24973428e-001 2.63959140e-001 -9.81807634e-002
      7.29946643e-002 -7.74691254e-002 -1.60934120e-001 -5.03419489e-002
      1.24558687e-001 1.23813394e-002 -1.83426052e-001 5.24774492e-001
      1.33411750e-001 1.29948050e-001 1.20347954e-001 -3.84695344e-002
      -6.88891232e-001 -1.00297444e-001 3.53860408e-001 -1.30148694e-001
      -3.69713455e-001 -5.40968359e-001 -1.86241686e-001
      -2.20187411e-001 -8.00570771e-002 5.77495806e-002 2.13747248e-001
      1.25604197e-001 8.46992284e-002 1.40681013e-001 -2.30860233e-001
      -2.12227032e-001 8.32207948e-002 7.98157230e-002 -1.09301873e-001
      2.71157801e-001 2.46293042e-002 1.33640617e-001 -3.53940308e-001
      -2.47857377e-001 -1.60128940e-002 -2.30361640e-001
      -6.34540152e-003 5.02509773e-001 6.46318972e-001 2.44505465e-001
      5.64880483e-002 3.06550618e-002 -1.05381854e-001 -1.24866731e-001
      -1.10299103e-001 -1.48783296e-001 6.09806217e-002 3.27907920e-001
      -2.03018948e-001 4.27930728e-002 7.82088637e-002 -1.24260798e-001
      -2.19758883e-001 -1.32800877e-001 3.80498096e-002 3.52342904e-001
      1.54515877e-001 1.07042477e-001 1.25558138e-001 4.15312022e-001
      -3.74839306e-002 -2.57468998e-001 -9.92659032e-002
      -1.16995655e-001 -2.79072881e-001 1.72178835e-001 6.88798204e-002
      5.69674790e-001 -1.85939714e-001 -1.15704983e-001 -1.73079893e-001
      1.17611401e-001 9.55631658e-002 3.47479612e-001 -3.36115599e-001
      9.61857289e-002 1.65560588e-001 -1.87048256e-001 -4.88084853e-002
      -1.85420915e-001 2.10948333e-001 1.65963367e-001 -4.85104807e-002
      -2.52463102e-001 8.31181034e-002 2.26209443e-002 2.73093790e-001
      2.57866770e-001 2.63567954e-001 -5.13229929e-002 -1.24199703e-001
      -2.51136571e-001 1.63756981e-002 -8.96028727e-002 -8.60718936e-002
      -1.30433336e-001 -8.23069829e-003 -2.03408729e-002 7.34066293e-002
      1.06411472e-001 1.46490023e-001 -6.15097396e-002 6.45291060e-002
      -5.95940426e-002 -1.06819816e-001 -4.10225578e-002 1.13247260e-001
      -1.69642363e-002 -4.03008610e-002 -5.66310771e-002 2.35641778e-001
      -9.95733142e-002 -1.27745703e-001 -3.36748630e-001
      -9.37604159e-002 -6.71486482e-002 -3.65222432e-002 3.22477892e-002
      3.09461523e-002 -3.56108993e-001 2.71864265e-001 4.45122987e-001
      -4.25696135e-001 -8.76888633e-003 2.13513598e-002 -6.60974532e-003
      7.41129965e-002 -1.52141172e-002 -7.51281321e-001 -4.91656922e-002
      1.61787599e-001 -1.92710683e-001 -1.65471509e-002 4.84870337e-002
      -4.36033169e-003 3.75540694e-003 1.43709183e-001 -8.33595544e-002
      -1.97940916e-001 5.74854672e-001 -3.93833458e-001 1.77004822e-002
      1.14632836e-002 2.57543385e-001 7.31142759e-002 1.20161839e-001
      -5.66489458e-001 2.64980011e-002 2.16554720e-002 1.31820485e-001
      5.52649312e-002 1.70885384e-001 7.25469291e-002 -1.59388781e-002
      5.32895029e-002 -8.01503137e-002 8.56033266e-002 4.46328819e-001
      -4.39207375e-001 -1.35807395e-001 6.30738735e-002 2.11546221e-003
      -4.61774319e-002 1.04153976e-001 -8.04744959e-002 2.74364743e-002
      -9.26068947e-002 -2.87487924e-001 -6.25746623e-002 4.31149229e-002
      -1.47083640e-001 -3.15406859e-001 1.82793534e-003 -1.57141626e-001
      2.05787584e-001 3.26912910e-001 -4.92628634e-001 -2.96435416e-001
      4.18565422e-002 -2.26919423e-003 -2.01275587e-001 -2.93966413e-001
      -2.05569163e-001 1.15375064e-001 6.37870654e-002 -3.14527959e-001
      -9.14332643e-002 6.56116009e-002</_></support_vectors>
  <decision_functions>
    <_>
      <sv_count>1</sv_count>
      <rho>3.3911620838662948e+000</rho>
      <alpha>
        1.</alpha>
      <index>
        0</index></_></decision_functions></my_svm>
</opencv_storage>
